ERR2146881	5.4589767	9.156851	-13.616077	-3.6338584	-5.3187613	-9.311084	-1.7737683	-19.142015	18.788404	-3.4496226	33.00425	1.2254947	-4.4602175	2.4404476	-4.3704147	-12.348232	-3.0737786	1.848669	-5.560351	11.152923	1.485475	-2.2518766	10.959532	-2.304499	3.03612	-0.41954297	-2.2305026	6.6009846	4.0482125	0.9988758	-2.4913046	1.218978	-0.7694616	-3.8688788	-0.97044265	3.0531766	2.713751	-1.0579162	0.3614047	-2.7865984	-0.33357495	0.69612515	-1.5473334	1.9639047	-1.342024	1.3165048	1.8054625	3.5138624	-1.2423904	-0.37411305
ERR2146882	-2.7644844	10.331178	-4.302322	3.5723186	-3.1873093	-2.1887589	-5.2922373	-10.549614	-5.309749	7.4710107	-15.845993	-3.5797477	8.250864	-5.1316032	-2.9544606	13.678887	14.032035	0.74465215	-1.3866954	27.227253	-2.9674783	-15.374714	6.420469	-6.394206	1.1121892	7.9060326	5.255946	2.747573	-2.3119898	2.826601	1.5095448	3.8565028	-0.35109097	4.0355697	-2.8891308	5.426396	-0.934771	-3.1341312	4.7390523	-7.2698693	1.5442933	-0.31011194	-2.4473681	-5.122789	-5.038242	-0.7669907	0.19943075	1.3905714	-0.84664756	-1.1879873
ERR2146883	9.616599	18.578653	-5.6127734	41.273502	34.66995	4.143274	3.967134	3.1470687	1.566454	-3.5010448	-1.2027502	9.3566065	-1.9175799	6.628034	-2.7597978	-3.1926193	-1.4460177	0.48717716	-2.0536156	-2.8613157	0.8015267	-5.326542	0.8044379	0.80941385	2.0332098	-3.000025	-2.382278	3.19778	-0.9649891	-0.119124435	1.8674557	0.2842989	1.2351818	0.91166955	2.124112	0.55751026	0.62952286	-0.34820262	0.8709844	0.5711245	1.4743024	-2.3860157	0.27555516	-2.867552	-1.5711007	-1.1719464	1.1993818	1.043867	2.7989013	1.3403175
ERR2146884	-10.958528	-1.4535179	-11.165856	-24.405798	17.283373	31.083803	31.61307	-8.053729	2.3244338	-1.5908448	0.19070171	-1.9193348	2.1932302	7.730256	-2.192952	3.5106573	0.3147673	1.0785441	-1.4744772	1.9420067	0.8282381	-3.5614686	2.8193092	0.5117844	-3.1839886	-1.6947902	-2.755939	-0.57414097	0.9546447	-2.199275	-2.1214502	-0.87242466	3.4060826	2.28031	0.63046944	-0.76423025	-1.5427157	1.5125384	1.6168468	-2.3102934	-0.54067606	-0.5963278	0.9015099	-1.2141913	0.6453329	-1.5608546	0.6010482	-0.7264492	-0.5626635	-2.873602
ERR2146885	-2.090555	-2.9806094	-1.1479986	1.6385462	-2.759721	1.5625002	0.94643706	0.85702527	1.2124833	2.079047	0.43024552	3.359752	3.185065	-2.6937156	0.21488455	0.7198346	2.6776211	0.39323953	-0.019781722	0.46186602	-0.81458336	-0.9386044	-2.6025898	1.0847175	-2.8747501	-2.44426	0.9447576	-5.0536785	-2.1405284	-0.41720986	3.3093622	6.453216	-1.2875708	2.7913892	-2.9092798	0.5512548	1.30375	3.0408351	-0.76605004	-0.61267716	0.24257597	3.320653	1.5253763	-1.7731463	1.720187	-3.249024	-0.17608082	4.625102	-0.19745788	3.9692457
ERR2146886	0.14195608	-5.703766	1.6385856	0.7649145	-0.15937749	-3.0383189	-0.5594394	2.5930698	0.16530187	-2.9958506	3.985824	2.8277307	0.5820567	-0.064611405	0.5453207	-0.0702498	-2.7091577	2.64122	-0.56797594	2.1218984	-5.0574384	1.4873375	-0.10841349	-2.6807587	1.6191758	-5.3719096	-1.2903231	-2.2359052	-2.7563746	-2.7937114	-0.35804066	2.9276817	3.783212	-2.6400127	2.8770607	1.0392761	0.0700489	-4.615528	2.9348707	-4.7114406	-3.5414317	-1.7053471	0.38068342	-2.9857075	-4.732336	-4.3884277	0.2222653	-5.387212	-0.74211746	-2.1389096
ERR2146887	47.144455	-15.423376	-10.084971	-7.8758845	1.877033	-2.644884	2.8404481	0.33444965	4.2796373	-4.7458935	-13.979866	-4.7739825	-11.819851	6.402056	-1.2745978	-4.3586593	7.1477647	4.2592874	-0.15144426	1.4908847	7.2724614	5.275824	4.931235	-6.9250593	-3.602108	-3.4304862	5.1638007	-3.0332017	2.3712924	1.5227636	-0.2353501	-0.73107785	-1.3383942	0.9486234	-3.5755517	0.4132288	-3.5967772	2.3133755	4.2821317	2.010122	3.3327985	2.5495534	2.429404	-3.6696367	-3.887688	0.7632486	-1.505455	0.68012005	1.9789087	0.26938403
ERR2146888	-1.3469391	1.6867607	-1.159958	2.260538	-1.1966261	1.668151	1.1814734	3.2437625	0.8641649	-0.4262324	0.93646514	1.1996577	-1.8790199	2.3292348	0.44379023	2.0336258	0.6217184	-0.8808157	-1.9869817	0.05250907	-1.392124	1.6782646	1.4073954	-0.9036451	-0.63199365	-0.5443839	-1.3273937	0.7687246	-1.3395472	-0.26079285	-1.5442585	1.7041178	-0.30506942	2.6294975	-0.7231308	-1.9756124	0.36010653	0.14549468	1.2339655	-1.6479039	0.32537654	0.9356883	1.0988717	0.34524632	-0.2960849	0.06398797	-2.6946404	-0.19842519	-1.5659912	-1.3055363
ERR2146889	1.6067209	-9.98222	6.9788303	1.13813	0.22295064	-1.1413897	-3.6618335	2.6311626	5.121175	-3.760838	-3.2193925	-5.819844	-2.4764714	3.0393786	-6.1884756	4.5698256	-1.0542542	-2.4942698	1.3749723	-0.50231236	-2.9441009	-2.7243261	-4.4620404	-3.6070414	6.857395	0.96650285	1.7051114	7.164331	-3.3317513	-6.4782357	-5.4310613	2.3935747	12.510579	3.549903	6.895006	2.3071527	3.6772242	6.714344	-4.9874454	-10.778712	-1.8914595	-13.765211	2.0711548	9.2756	-6.143729	-2.5352454	3.2458947	3.3467734	3.0175977	-7.468996
ERR2146890	1.4891654	-0.25365967	0.6489811	2.1218433	-5.289002	6.7922864	-0.84063053	-0.6265412	-1.5584303	-1.1989532	2.1407812	-4.092215	-3.5352635	4.3393607	0.23784424	2.0788026	-0.4643446	1.7471976	0.3142668	4.8470273	3.7288046	-1.59479	-5.9481764	0.49327207	2.5755327	0.5271285	4.5190024	-2.4190297	-0.4689198	-0.3266421	-4.194446	-3.3763263	-6.923733	-1.8730103	0.6262267	-0.32185757	3.7671497	-0.20112608	-3.1010196	1.0341971	-0.45290115	-4.4906235	-4.0215883	3.0392277	2.871021	-5.112924	4.7053027	0.42417753	1.6981736	0.6308438
ERR2146891	-2.8656373	-3.636485	-6.1654096	-7.119032	8.092197	-2.8422732	-4.1517344	0.7543418	-2.1571019	-0.66381806	0.16261786	0.55238765	-1.3594233	-2.4892101	-0.67032236	-2.7153878	0.8906772	-2.2639065	-1.1988838	0.479894	-0.8176015	-0.51821405	1.1328579	3.4718523	3.1169114	4.254193	1.7510211	-6.347423	-3.7820144	2.455787	-2.1154797	-1.4909631	-2.4431186	0.62244695	3.4313543	-0.5429549	-2.4234576	-4.777416	-0.10058116	2.4532712	1.7557892	1.9046686	-2.9904315	2.9067476	-7.5056562	-2.1817598	-1.7194026	3.3499513	-1.4146667	1.4418541
ERR2146892	-1.169088	-4.846465	-1.9407634	5.0005403	-2.784717	3.55328	-0.1812823	-0.022110991	-0.32344773	0.0023264012	3.0619886	-0.63359576	-3.05437	2.2417777	-2.8943112	1.9656639	-2.1045425	-2.4004316	-0.94713527	1.3219973	-1.4388529	-2.2871668	-2.4233243	2.3853633	-0.5058056	-1.5732145	5.1471896	1.2213581	-3.6223974	-0.6713143	-1.6772444	-0.3599194	-4.5099936	0.75516695	0.34899083	1.7440526	0.8474276	1.2920923	-1.5334125	0.09365919	-4.3178897	2.0026476	-3.067962	1.4731206	0.9210095	-3.2346318	-0.3404057	-4.2768116	1.8333949	-2.5837827
ERR2146893	13.305969	-7.4445825	-5.087994	2.056926	-2.2910385	-2.2091448	1.8645737	-1.2137364	0.86102366	0.45500788	-1.8753327	-2.5785944	-5.46646	1.279859	-0.44515508	1.6645951	3.301455	1.2515982	-0.5123621	-4.3709865	1.1024425	-1.4916489	-3.666393	2.7165318	-4.227164	-1.4517539	3.3556645	1.8589271	-0.4690134	0.22384135	-3.2510319	3.6290355	0.39286816	0.9980952	-3.5799131	3.7081316	-0.7250249	1.7208718	-3.5706322	-7.761477	-8.581145	-3.262149	3.4760692	7.6395392	1.1386728	-1.443612	-0.056010846	-5.5561805	-5.714577	-0.065983094
ERR2146894	-0.097869605	0.7217248	14.212526	2.495584	8.949172	-4.9000196	11.596171	-7.6149545	6.0275173	-4.9486594	1.606272	5.5581446	7.5554175	-18.483175	5.7271123	7.731058	-0.9221593	10.808966	3.6326206	2.2434242	-2.9777806	18.853668	4.059227	-5.54754	-8.626116	3.0123377	19.102894	7.0943875	-6.464193	-5.918741	-8.609278	-2.1469083	-1.580899	-5.8005667	8.901425	2.813448	-3.8855536	1.7139318	0.9593638	2.8162456	3.825672	2.33433	1.314782	1.3977783	-0.6227658	3.653907	4.50112	-1.7711718	-0.8247492	2.4621463
ERR2146895	-2.0022357	-7.983554	-2.9912324	9.349237	-1.1668538	-2.164555	1.5887175	-7.525838	1.3306159	4.6837044	2.8642697	-9.08472	7.361897	-4.0599093	-0.64482385	-0.6109809	-3.7453263	-2.921322	6.0725574	0.37834755	-0.7008569	-6.3121915	-7.074025	3.8739605	-8.470916	-3.9344819	2.9831984	2.7046142	9.7489805	4.996966	-1.5822722	9.311067	3.7192724	-2.7783508	-2.433092	10.085912	-9.643703	1.603356	5.1124043	14.807747	-10.530366	2.687242	1.4349276	-1.4986998	7.354022	-4.8581305	-3.5761528	-3.384616	-0.05899828	-3.291256
ERR2146896	2.9102337	0.51109034	17.432154	0.8049461	3.0914085	5.831162	-0.28729558	-5.590118	2.6109664	-5.0987687	7.444707	-2.5689292	2.3529139	-3.69962	-1.1714755	-0.7648168	-7.1217766	-0.16338651	1.3826299	4.559508	-5.5886965	-8.265838	-6.6675124	-0.58040893	14.022255	-3.5296144	12.808462	-9.061294	0.701159	6.5846877	1.66083	-6.706746	-5.362255	8.479097	-12.8276615	-9.212954	1.8379953	6.4996285	4.536685	1.51359	7.252554	1.9542681	12.2998705	7.21124	-3.722512	0.734417	-8.39303	-6.7982035	-2.3463392	0.48402083
ERR2146897	-0.5377937	-1.5567575	7.4563184	-2.7275493	1.8435682	-1.2110441	0.38870454	-0.3976573	0.33909035	-4.7575045	-0.77609533	2.322262	-1.9592322	-3.0848708	-2.1580968	-0.35695782	-2.2627068	2.3147662	4.6559772	-0.6756341	0.49134097	5.222558	-2.1392057	-4.3154187	4.0516863	0.21948566	-0.593539	-4.043898	1.9232444	-6.1389112	3.4321795	-0.42400232	0.03276601	-0.84885645	-0.032918286	5.028792	3.690465	-6.532894	-3.5716093	-5.059139	1.1796803	-0.551072	1.0935589	0.2874766	6.253923	-8.601368	-10.601808	2.6883032	11.057509	-1.5618092
ERR2146898	-1.7433851	-6.5649505	7.9129744	2.1948714	-1.2917063	-20.028255	14.559218	-11.246154	5.605334	-4.1490183	-5.384099	12.756765	-12.656391	9.866057	11.467236	16.910383	-3.118717	-15.690602	-4.8853383	7.5931954	-11.748293	7.809554	-0.5800992	13.395151	-3.631487	0.77032775	-8.33103	1.6985828	5.933268	3.29679	4.6663795	-3.3353713	2.109912	3.5205092	-3.049108	-3.694533	-1.131335	-1.1747823	-0.49088028	0.29971084	0.85844487	2.602532	-1.0954636	1.2113786	0.4275936	-2.7433035	-2.0158205	0.41531432	0.81758356	0.089420706
ERR2146899	-1.592257	-4.7004766	-1.6977347	2.5820801	-5.8397646	0.480051	-0.49489006	6.798903	-4.3522925	1.025252	3.4811687	3.70223	-3.9719117	3.3281925	-3.9749365	2.5000234	-3.5989559	1.9295701	-3.1944394	0.09110031	-0.8307307	1.9451137	-0.12823164	-1.9758241	2.7659178	-4.880188	8.115787	1.2705194	0.17087528	2.0869634	8.82933	1.3792982	-6.2537546	3.1994586	11.091817	-1.8534741	1.6201198	-1.7602118	11.0253935	2.5025969	-1.950873	1.4184266	5.1855707	-6.0784693	-1.8192291	-13.841497	5.3420105	7.3098016	-7.7276616	-11.463472
ERR2146900	-3.2756524	-1.3166046	0.6347935	2.9629796	-1.9580091	6.196819	-2.8814306	3.6769373	3.0395086	4.170708	0.77123946	-2.1027627	-2.6567333	3.8544893	-3.9495394	7.4370766	4.258306	-6.5312414	2.5797682	-0.045626506	-7.257147	4.334422	-1.5756621	-0.8014561	6.758177	-11.250123	5.0264826	11.216874	-1.3641201	2.9855852	-8.732526	-5.123369	2.8200796	-0.18188995	-1.448079	-3.264628	6.9454246	6.675711	3.193766	0.32920486	-8.907724	2.3678346	-7.639681	-2.0707853	-0.4144764	10.609963	-3.7395482	7.54529	5.0749545	4.7687783
ERR2146901	-2.2425928	-7.1124916	-3.9810927	-5.445844	6.3344693	-1.2110662	-5.70955	2.0924556	0.48238805	1.662326	0.14471278	1.8058273	-2.7557082	-1.0098314	-3.1665707	1.9914757	1.2771643	-1.312204	-3.1788197	-1.4654539	-0.5377129	1.032891	3.035964	0.32927746	-1.5665873	1.1370156	1.7016721	-2.985637	0.19446735	7.2235737	-5.3848906	3.8713949	-0.29827634	0.79753536	0.6303721	1.6846998	1.0255252	-3.00668	0.8603309	2.6735349	2.9549217	-0.7071886	-3.4554858	6.0463796	0.5793199	0.59616363	-2.0394516	7.052318	-1.1200584	2.1891484
ERR2146902	-4.575102	-6.9479628	-3.0922933	-4.68679	10.314754	-2.218639	-5.1202297	4.6450844	-0.6609847	1.0895731	-1.3122443	-0.13448343	-1.9120644	-2.9456315	-0.700044	-0.8137465	-3.2194457	-5.35075	-2.7599962	-3.938987	-4.7169	-2.6945746	-3.6420429	3.6068547	0.6591192	3.2683213	3.8112578	0.26444003	7.970235	8.931614	-12.783069	-2.2603316	-1.0276227	1.4374187	-1.857798	2.8105605	-1.010232	-2.4136112	1.2585728	1.4078082	-0.30264765	-4.9693537	-0.083353505	5.374713	-3.123801	-1.7467961	3.2007594	3.5426235	1.6144452	-2.849091
ERR2146903	-3.9506109	-9.499369	2.064371	0.22448942	-2.4183304	2.4369903	0.2753625	3.275117	0.12712957	-0.3405428	1.4766129	10.554866	-1.8724781	5.4793234	-4.303256	1.3368068	2.8833115	3.999646	-4.6855326	-1.2705142	3.6231294	-1.8395222	-6.559295	1.5559992	4.0485578	-2.4726257	-5.6787343	4.444036	-2.7608204	-1.6701881	-0.23119202	-0.8454612	-11.322563	2.2183545	2.5961087	1.9214356	-3.7698374	0.8618668	5.9788895	-6.284315	4.1952543	13.775491	-4.475659	-5.0126567	-2.9831638	5.154946	1.4643468	-10.958668	-0.3512104	-6.6808996
ERR2146904	33.970627	-1.8003091	-6.962514	-3.2780154	-7.8118777	9.865539	1.5030836	5.19241	-1.2700162	3.0593054	9.016909	14.531468	27.65975	-11.300433	3.6118252	10.000641	-3.0396562	-9.937549	-2.038677	-4.140058	-9.843826	-6.0475082	-4.691794	4.544511	0.96419954	2.4671557	-7.2149305	2.3502586	-0.8721174	-0.5063802	1.2816559	-2.0297828	-1.887571	-1.5682769	3.0239515	-0.46109244	5.37929	-3.8295407	-1.4752121	-0.97846323	0.7629004	-2.429286	-1.0002452	0.912567	4.7724733	1.1519941	0.53790504	0.5498526	0.6512114	-0.52130616
ERR2146905	-3.884481	-10.344884	-1.8795488	3.7320695	-4.019127	-1.0809395	-0.1436912	2.6002183	-0.33330545	-1.3180915	2.1610868	6.825101	-0.82970834	0.05579754	-2.0337224	-0.022480505	-1.4465454	4.1826444	1.9669495	-0.28103733	0.05542587	0.6567138	-6.011322	-0.32401815	-0.6624509	-3.4558597	-0.92492086	-0.961092	-6.584044	2.3778515	3.3014657	6.5234027	2.52664	4.683652	1.6112674	6.3529644	-0.94478375	6.413776	0.08366544	3.5571048	-3.2468994	3.4653807	0.4328327	0.410509	-0.31310272	3.6597028	2.0058682	-3.0841541	0.7867511	1.58279
ERR2146906	-1.1067982	-4.380215	-2.9340014	-0.77095604	4.3238034	-1.6949488	-2.7028608	-2.009483	0.96740425	0.98802453	-0.53130704	-2.1482294	1.7036011	-0.122059435	2.0148184	-0.5326772	-0.6501422	-0.8920816	-1.7406031	0.8856366	-1.7692041	-2.5288758	-1.0477798	2.858096	3.6984282	-1.2462275	-0.13563128	2.1171517	-1.801968	1.8335559	-0.2374296	-1.0300643	1.2781832	-0.82267916	-0.32983488	0.63443166	0.9165691	1.2949207	3.128124	1.2437733	-1.4379655	0.6042729	-1.3965145	-1.2513813	-0.9983686	-1.2914811	-2.0802743	-1.2424972	1.3116349	2.2354221
ERR2146907	-1.8266155	-7.168451	-1.3578169	-3.9236307	6.672116	2.2840157	-4.5026608	1.7947005	2.097837	0.92131007	-2.0222094	1.7535037	-2.6779287	-1.9013035	-2.7498176	1.6119088	1.6096137	-0.84516877	-3.228239	-0.0063918987	1.0253029	-1.4690992	-1.4733628	2.3351412	2.2655294	3.4769697	1.7512262	-1.2390003	0.5351203	3.4349253	-4.0900035	-0.03581003	-1.6864184	-0.9466663	0.49915585	1.6473126	-1.2856628	-2.8722973	2.1684942	0.47351438	-1.3278869	1.7275543	-3.9458983	2.4538748	-0.89159834	-0.2009375	-1.9144627	1.2369857	-1.7850899	1.7525336
ERR2146908	-4.149981	-9.644458	3.766054	1.9658213	-2.3319952	2.029949	0.5155251	2.868589	3.4058568	-0.007993567	1.3036528	5.872667	-0.7021614	3.7550194	-6.1508512	0.1809632	-1.6147896	4.1538677	2.015769	0.52031136	-1.7415333	1.4873096	-3.0752616	1.1617861	2.3331394	1.8130089	-2.1539693	2.6887488	-5.061682	0.09780876	7.021786	-0.86363494	2.5620112	-2.5711882	-6.0215497	2.752209	-7.888522	-0.8035201	0.28885448	-4.815146	2.5195396	-3.8483496	-4.970665	-3.3837037	-5.0549827	4.5194554	-2.9021208	0.7873799	-2.0529377	0.8710997
ERR2146909	-0.72419804	1.6739213	-2.4166696	5.0566325	-1.9567547	3.1254268	-0.23959622	-2.2946272	-1.4321733	1.2039741	-0.86136013	0.09343922	0.58658135	-1.9646187	0.7711799	-0.48345673	-1.2844119	-0.055225823	1.9531113	-2.5385835	1.2130705	1.6925111	0.6766756	0.28510466	-3.3626497	0.5789623	0.94850266	-4.6448975	-3.7374337	1.5200568	-0.029849505	6.9470005	-3.638532	1.2776383	-2.3030725	-4.8646474	-1.9196322	1.4421824	1.5935515	-1.1816218	-1.3430122	3.615974	2.1003976	7.94786	4.4688144	1.6624866	-2.8868878	6.8229203	-10.388403	1.4024433
ERR2146910	-0.15825668	-1.3270023	10.29494	0.43319342	1.4727647	3.2770054	-0.835603	-2.2960851	4.1775155	-1.5547818	0.6346042	-3.8823574	1.8060149	-1.0118552	1.0737665	0.11103332	1.3136503	0.24545914	0.487094	-1.9675692	1.9820347	-3.2763736	1.2152069	-0.33350986	3.4816232	-0.31167445	0.20418851	-2.0169346	0.26256922	-0.502479	3.9286788	-0.8748229	-0.6915902	0.44692865	-0.9566273	-2.2253492	1.5663655	1.1076761	-6.11228	-2.370045	3.2310245	-3.3109176	-0.24137105	0.8281694	1.4058744	-1.5734842	0.047462076	-0.4800119	0.2721032	-2.9742997
ERR2146911	-3.57491	-1.8893752	-4.681747	-4.634894	5.158564	-6.4347997	0.18489009	3.0170982	-5.207091	-2.9301226	1.3389144	0.28996712	1.3859779	-4.500914	4.4094825	-1.7107968	-1.6593069	3.2217758	2.5175774	-3.9669263	-0.50815886	0.43042073	0.9741604	0.47988284	3.7285166	2.740317	-1.2370399	-9.332188	-2.65929	0.4750362	1.4974133	0.865546	0.77202374	-3.7646363	0.74920696	-5.1435337	5.185269	0.6357232	12.74891	0.7264323	-6.2150717	2.0067601	-2.2981398	4.424517	-5.2350593	0.46406308	2.1151931	-1.1760577	1.4979756	6.9822946
ERR2146912	-1.6520661	0.45566705	-1.3079758	3.778389	-5.4689612	2.5440366	0.74283683	0.7410394	1.4342307	1.4387631	-1.9471974	-3.1888642	-3.5152018	-2.050552	-1.0551984	-0.87490517	-0.622502	-3.8748398	2.078362	-5.091656	-0.47891372	-1.1996114	0.92695934	0.36593488	-4.6316304	-0.2602485	-2.0761142	-3.795697	-2.487139	-0.9962397	2.5254831	1.3890443	1.1445644	-1.3253536	0.15874304	-0.080806695	0.034775883	1.2871469	1.2168851	-5.330474	0.82111794	-0.9532599	2.1293693	1.5424944	-2.162371	2.884914	3.0170121	2.5987601	-6.0851846	0.9458914
ERR2146913	-2.5545104	1.9263288	-4.3582287	-5.848144	6.868331	-8.273427	-4.1055264	4.6410737	-1.4509251	3.292109	5.484121	4.2224016	-3.4648387	-0.07777456	-0.75634944	0.3887806	2.1642566	2.1304014	-2.7372148	-3.6236887	2.6403866	-1.055475	-0.38579535	0.7961986	-1.6134654	7.966061	0.4940966	-4.4498544	-4.8583603	6.600222	-12.678566	0.46557418	-1.4620692	11.869845	-0.68761647	-1.6845452	3.4339936	-5.0131254	-1.8971289	-0.16724303	2.3071642	-2.17877	-4.941909	-4.0182137	13.887664	-2.9942365	0.11113698	-9.60567	3.3168993	-6.796268
ERR2146914	0.47608602	11.80984	-1.706115	-2.4692144	-4.6449714	2.0296633	-1.9550772	6.504845	-10.138984	-3.3442578	-1.1758932	1.8642925	3.005217	-5.268875	0.83008033	-1.0808947	4.5781937	-1.7377169	-2.3390687	-4.5705643	-2.989462	7.7221932	11.680901	6.985902	10.642927	-13.90419	4.178841	-0.103389405	6.9325237	-7.945313	-3.6222246	-3.9431212	15.722309	1.2005395	-13.566531	4.1373854	-5.3778715	-10.816733	-0.01650713	1.3011004	0.49409336	4.323278	-5.183012	2.1292984	-7.490018	-7.852372	1.7740008	-6.980655	-2.9702888	-1.3313767
ERR2146915	4.906261	-0.952582	11.454395	2.0833397	1.2177664	0.68287665	0.13269614	-4.408586	6.6050725	-6.179511	-1.7423764	-5.397306	-1.8851843	-7.150487	3.201442	-0.0351396	-2.395394	-0.29337966	2.25099	4.9662957	6.25439	-2.1909094	4.547124	3.1000361	4.584613	-4.9912157	-3.9882877	-13.512857	-1.4426706	0.23325689	6.0445466	0.4174302	4.2337666	4.1947436	1.9252949	-3.945087	-1.8595934	0.81425744	2.2558188	3.891989	-1.4386933	-4.041791	-14.714103	-0.6339072	8.220995	17.028765	11.178324	-5.100568	2.0603044	-8.2686205
ERR2146916	-1.564136	3.5919645	-2.4933348	3.4796362	-1.3324782	-1.3245616	1.4097607	-0.4033388	-4.2121377	-1.6379685	0.29780966	-2.566401	-1.0607448	-0.8526117	-2.3151495	-0.2178025	-0.6348842	-1.4633069	1.6758476	-0.8158258	0.14625357	-1.788429	1.5066091	-0.9039835	-2.5473895	1.65226	-1.045497	-1.0989062	-3.2581682	-1.3207191	-1.2503725	1.2233888	1.1713487	0.54736686	0.41107887	-1.1084896	-0.42877105	0.7896796	-0.37128597	1.7561103	-2.3033357	0.949619	-0.45694146	1.361097	-1.8263068	2.7129834	-5.1624317	-3.6269858	-6.1432123	0.9655108
ERR2146917	1.904593	-5.551806	7.991523	2.0081418	2.4818923	0.9394337	-1.7444853	-0.9838213	2.8097866	-0.35297418	1.8770167	-1.2533057	-0.44841823	-3.881577	-2.1386068	3.5097537	-1.0521988	1.5923712	-3.4805171	2.9872935	4.054609	2.9287093	2.3655689	-5.1604657	2.8556728	2.2327003	-3.3744493	-8.493334	-1.4885944	2.6367726	8.193757	5.498384	8.257566	1.6068245	7.5129275	-3.0559044	-0.71547735	-8.734636	-11.009903	-1.8756807	-3.0374331	-1.0787386	-5.0498824	3.40213	-1.0283474	-3.6038597	-0.98408335	0.44524446	-7.770248	-4.2600484
ERR2146918	-3.8698194	-2.4791324	-2.0507257	3.9530656	-1.4370378	1.0985595	2.0567832	0.9668276	0.82315814	5.2156367	0.9090415	-1.3035824	1.9291083	-0.76767266	-2.7282608	0.5734122	-0.58233833	-4.941433	3.0130422	-1.3146125	0.8599814	-0.04145177	-0.3210808	4.0732265	-4.5256505	1.5372266	3.6245666	0.17479986	-0.01718114	-5.015152	2.8721225	0.8098719	-0.90552133	-0.9839071	-1.8462913	6.791419	-3.7051952	0.075368464	-0.15355903	-6.491797	5.186291	7.121029	-0.5242835	4.347411	-2.0870607	2.9593608	1.3823802	3.3728926	2.8905492	0.20567688
ERR2146919	-1.9005411	-7.1538577	-1.5374805	1.7285491	0.3883525	-3.7346423	1.3456292	-4.456081	-3.0803804	4.5926156	2.4313223	-3.425855	3.33816	-0.19514328	0.7587199	-5.7664294	-2.7323472	2.0077925	-0.886281	-1.9140787	0.9776742	-4.272547	-4.304383	-1.3422966	3.4775403	-3.140273	1.2880943	6.5985355	-1.0517647	1.5671707	1.6011381	-5.4152365	0.6520663	2.1448486	-2.4807973	1.2541298	-4.428195	-2.9592454	-6.8199005	-5.0483165	2.6904557	-0.08399659	4.1746044	-1.3094453	3.9531534	4.0168624	-2.5057359	1.5594974	-5.6346755	0.23987375
ERR2146920	-3.1740496	-6.7395277	-0.0018716153	6.358555	-5.084237	0.29877818	4.925544	-1.2589144	0.90480936	5.76906	3.9618812	-4.7976794	-0.15477788	-4.1950045	0.68441576	-3.1396239	0.84278286	-4.2984066	0.89125514	-1.2112557	-1.1074331	-0.9041373	-3.476281	1.8298321	-5.10325	0.110386804	1.6004381	-1.8547939	6.084492	0.3797534	-4.142375	1.665889	-8.352692	-3.862982	-6.4612994	-7.3926067	-8.4362545	-0.8060435	-7.3779387	-3.0190613	7.9835615	-8.702288	-2.9489124	-9.070049	-10.68965	-7.9773703	12.578789	-8.125277	6.6723814	5.9800143
ERR2146921	-0.38647345	-0.17349377	-0.74192613	5.99151	-2.795869	5.5765047	-0.89011604	-0.9792504	1.519542	3.6422358	-1.0287668	-4.140773	-3.157628	-3.7077262	-3.0461206	-2.7467992	0.8331807	-2.4273324	-1.3897837	-0.71777093	2.0519307	2.3347962	-1.655761	-0.037033852	-3.0191073	-1.9699191	0.8285094	0.40617454	-0.032954488	0.2306781	2.2284577	-1.9073066	-3.1305845	0.121615805	-4.4600363	-0.46672565	-2.349973	-3.6214461	1.3611214	1.3227897	2.0163462	4.575911	-0.206974	-2.7330654	5.1942134	-0.5741882	1.622867	-0.065878674	-4.679426	5.0359716
ERR2146922	-1.1867625	-4.6868563	-4.5412836	0.034690045	3.0540338	0.24793164	-1.5562519	-6.52214	-0.25112313	5.080991	-3.5508027	-8.238044	4.282665	-6.415545	10.324569	-0.19926365	8.000411	-0.75906044	4.652025	-3.2632868	7.7417645	7.7604885	14.475777	17.070044	17.929777	-2.2869477	-10.745072	6.1737027	-8.848197	3.172015	0.29537264	5.1798725	-3.9520917	5.0539503	3.608737	5.2738595	1.1780572	14.932881	-3.5581028	6.1327586	3.336109	-1.1435676	4.419169	-1.9698712	0.7511227	-7.131895	1.9069977	0.93600726	-3.7543917	1.3390521
ERR2146923	-2.7658439	9.914138	-1.2591038	-0.38697523	-6.7233753	0.63834304	2.7823524	7.405159	-3.9342432	-3.4326103	-1.2699928	-0.06629269	-2.7973948	-4.6277676	-0.19344363	-5.4773254	2.2456539	-8.25156	-9.303719	-7.8266106	-4.82181	4.498162	11.285421	-11.131095	-1.0240113	3.0069165	1.2969079	11.798116	8.093467	-5.991772	2.6529586	10.230874	-8.757124	15.239651	1.662563	-2.3563278	-10.511965	4.093596	7.284199	-6.569916	-1.1228402	-6.5217133	-2.6053407	7.1020103	8.4955845	2.1483023	-3.186651	-6.855839	1.6301615	0.3128951
ERR2146924	-1.2714765	4.571321	-0.45476764	3.454248	-2.1289058	5.386227	-1.9912335	3.700704	-4.2057233	0.52035826	3.6302836	-3.6099308	1.0372335	-4.7068934	0.62825996	-1.0598327	1.5630733	-3.8073823	-10.741647	-1.2124104	-6.0464907	6.2513227	8.223649	-7.9921813	-4.3260126	4.312327	-1.9850883	-10.793271	3.3345416	12.486866	4.321721	-14.013892	0.22730842	-3.0487294	6.9559135	6.3003163	-3.1739943	16.09689	-12.72011	-5.71171	-10.656756	8.849474	1.638597	-5.3492002	-5.1007733	-1.5459708	-5.7226744	-2.3503668	6.922378	-4.020458
ERR2146925	-4.612402	-7.072484	-1.4316412	-0.42254522	3.2871513	-3.6525702	-3.6754694	-1.09809	-2.862113	1.9383149	-1.4432157	-1.3330636	4.4650836	-1.5689924	8.786503	-0.84601873	-0.23790565	3.0513952	0.2375671	-4.685821	3.9393115	-1.6939206	2.7943902	0.69514275	6.4869995	0.13624328	-0.10191848	4.377037	1.4948779	-3.5733998	-0.6525544	-0.99683553	-5.6228094	-9.614904	-2.9618905	-4.004588	2.4939713	1.4116791	10.086611	-7.846438	-4.128757	-1.927213	-1.5572102	-0.38622454	-1.3855208	6.0342	-1.3792764	-2.4773917	5.676152	-0.49552497
ERR2146926	-4.333358	-2.468451	-6.2139516	-2.1942346	0.033160724	-7.6054416	5.1990366	-2.852994	-3.5139136	-0.16219592	-1.1588838	-0.57458997	2.882013	-2.2431126	7.2896924	-2.756758	-1.413013	3.85466	4.317146	-0.14479917	0.32730252	0.24282505	-0.04926232	-1.5906488	3.0757256	-3.653832	0.95743567	-1.6886566	-1.3928132	-3.25946	8.760963	2.4303803	-0.69875586	-6.3559613	0.20811404	-6.444051	-2.4826393	-1.6944304	7.443304	-2.90062	-2.1863537	-3.793972	3.8712118	-3.7833347	4.3537717	-2.0940003	-9.196257	4.6916156	10.477537	-7.3055086
ERR2146927	0.547359	-2.3935244	-0.020953637	6.5818715	-2.149897	3.8187277	-1.5861176	-2.0870678	0.9971964	3.7818835	2.4997041	-9.622329	-2.6393824	-0.3003573	-0.06265836	-2.630617	-2.631978	-10.167395	16.399393	-3.7664123	-2.4676542	-1.5424337	8.925793	8.935074	-7.6284776	4.907879	4.9034624	-6.442159	9.714233	-9.1295805	-5.0983458	8.091049	2.1727893	8.500885	6.330052	-4.0467486	16.791119	-3.1849375	-0.056382213	-8.183945	4.1698956	10.387829	3.9687498	-7.860273	-3.0426974	3.5206976	-1.5133603	-0.8583938	3.8284147	-1.6353061
ERR2146928	-2.6720173	-6.4740243	7.2369647	1.0563184	0.33206233	-0.6124576	1.3441327	0.15745176	1.9068909	-0.6192848	-0.3088374	0.20742604	-0.75186545	-0.8142481	-2.8676763	-0.66318107	2.4895802	-1.8815199	-2.438754	-1.7156321	2.678969	-1.3168327	-4.2974963	-1.4634488	-0.16641311	-0.7582134	0.7802377	2.8089502	4.8150935	1.0562552	-1.6322541	3.825358	4.972608	-2.1736891	1.1764399	3.4151108	4.6281576	3.0385878	-2.446831	-0.66544765	-2.8828804	-0.04189371	1.3124844	1.8966407	5.334768	-1.64167	0.40630296	-2.1509616	-2.2575297	7.975122
ERR2146929	-1.7766851	-1.6377069	-3.3779974	0.47334647	-1.6918854	-8.474492	2.5752003	-3.7656755	-5.155227	3.1265757	-3.7227626	-6.2217765	4.0140543	1.6191792	5.02092	-2.89367	-4.2461767	3.6616654	-0.913951	-3.0206015	-3.3151748	-3.3632686	-2.3952026	-7.782627	-5.198771	-2.8487344	-5.6765733	-0.5013716	2.3293972	-2.1512156	4.2505684	-7.250796	3.4761503	3.0476196	3.5569057	0.96124226	10.601794	-0.45317155	7.292246	1.8530046	1.1720985	4.7057533	-1.9918432	2.3178213	-3.0662096	-1.6781005	4.618592	-2.2771451	-0.7414481	4.4054403
ERR2146930	-3.8708758	-4.325508	-4.144769	-0.007883653	2.4958982	-7.3800273	5.1563864	-2.60707	-5.468883	2.9102964	-3.196087	-0.5955819	5.150573	2.0740373	3.6877816	-3.09005	-4.149862	3.6893046	-6.08828	-1.9081589	-1.4867035	-3.367182	0.15863553	-5.0610337	0.38040042	2.844583	2.0044985	0.9465467	2.339759	-1.8856269	1.5211902	-8.553404	1.4974941	4.3251033	0.088582896	2.7861335	5.848219	-2.0115912	-1.7547411	3.7300315	-1.252915	-0.616495	1.6245967	-2.693687	2.9759543	0.29212254	6.170183	-1.7651284	-0.76370007	-2.6781273
ERR2146931	6.279933	3.8246398	-5.0141397	2.271128	-8.745992	2.7025666	-0.5221284	-3.3705378	-13.16812	-1.4475718	1.0738072	3.000892	-5.394745	3.156422	-2.6540596	-6.8540387	-11.614371	6.7065964	4.692459	7.4661465	-0.69911194	0.5648323	-3.7922235	10.060338	4.3994184	15.317691	-1.1692353	-2.5689397	-2.4322307	-9.903452	-6.7454	-5.166115	11.549365	0.12727353	4.926597	-2.130092	-10.645276	6.877783	5.682187	-2.3782952	-0.18627433	-2.5162249	-4.0022697	-4.2033734	5.4315944	-2.2702153	-6.551103	1.9795754	-0.9772004	5.392665
ERR2146932	-1.8729662	4.304474	0.78993773	6.2489834	-5.9286513	4.771976	-0.90774816	-1.3118032	5.271389	5.1551304	-3.246657	-9.189829	-3.4671874	-2.4219234	-0.38976502	-1.2774202	4.0922465	-5.3657713	-5.056549	-2.2530296	5.5073185	5.538971	0.85622877	0.8099289	-4.285085	-0.3467651	-7.9003406	4.044934	-14.627835	7.4646926	-1.9133874	-8.465874	3.516803	-10.950137	-2.7772882	-1.914792	1.6366559	-9.631028	6.148526	-8.59973	9.559855	5.534457	9.565518	8.897436	9.642299	-4.7476864	4.7305527	-1.1933548	5.190544	-3.29655
ERR2146933	-2.5110254	1.039266	-1.3847395	0.065514006	-1.1825933	-2.6341407	1.8561027	3.5062437	-0.92322844	2.4213288	0.39666197	0.47235394	-1.6355611	-1.0322479	-0.8605218	-0.94827276	-0.12429953	-2.7846575	-4.983845	0.5833604	-0.35838753	1.2693801	0.89934003	-2.9305906	0.81707376	0.8731943	0.20724644	-0.23879386	4.017678	1.2633282	-1.0907947	0.1589203	-1.2772144	-1.6859113	-1.0980338	1.9877731	3.5878341	3.5807765	2.083931	-0.7082747	-2.0019972	4.5223775	-0.3758085	-0.60437614	-0.8334309	4.2141867	-2.9254043	2.1000648	-3.442907	-1.5873027
ERR2146934	-2.9894762	-8.85726	-2.6881065	2.227632	0.52883625	-3.3152893	-1.1366497	-2.0710666	0.7747846	3.6461425	-2.396406	-0.8636152	3.3697808	1.0162557	2.689638	-2.3317244	1.3218002	3.1632023	0.34825817	-2.2268713	-1.3645141	-2.572281	0.40560764	-3.3312755	0.7412494	0.40928677	0.31686512	3.7747333	-0.6801502	-0.72751397	0.12777478	-2.4971921	0.30860102	1.2607857	-2.0278132	-0.27630162	1.7225465	-4.192263	-1.7956411	2.2403562	0.5332889	-2.1148021	0.46514258	-4.46389	1.9428899	2.5744183	0.7458191	-0.4748454	-1.9494559	-1.7677805
ERR2146935	3.6675348	7.9592156	-1.0978844	0.14716533	-5.2590246	1.7557633	0.017095236	-1.5053097	-10.508243	-3.4225688	-1.2055898	4.2095857	-3.0371757	1.289993	-0.17510621	-3.488821	-3.5069866	0.953129	1.2265761	5.6018414	0.7573781	5.5991797	-4.091071	4.008333	2.388612	9.416877	2.8970528	1.5954058	-0.24747865	1.3973553	-4.452003	-5.1614203	0.08942825	3.4541454	-2.3748016	-4.02034	-0.91719097	5.0191994	-2.6672232	1.538144	3.0164719	0.007273286	6.360574	-1.2831135	4.6029463	-1.4347571	3.2399688	5.0284534	0.6470925	2.511564
ERR2146936	-3.4771736	-9.523968	-2.958606	1.7058388	1.7832997	-3.924112	1.5423088	-1.9906676	-2.6884246	2.5731213	-2.4795096	-1.7512637	2.395876	1.6428163	3.1099417	-5.3752866	1.446793	-0.035203245	-0.27468827	-5.829896	2.5492938	-1.8826214	-1.1111331	0.36954924	2.1734402	-2.7031677	3.2671778	5.272888	3.4484754	1.4043868	0.5618288	-1.31269	-0.042898573	-4.366314	-4.8543344	-0.3941316	-4.1775465	-1.68856	-9.112296	-2.845763	2.1279142	-0.038877957	1.105429	-4.413872	-0.83801264	10.850911	-4.065355	6.9319973	2.7679622	-1.696835
ERR2146937	-2.2827225	-3.4368358	-7.4057493	-1.6811562	1.6999475	-6.084556	0.4831199	1.3498645	-2.794124	-2.4722009	3.1642125	0.23667149	0.15751861	-0.35842746	1.2161679	-2.1378443	-1.7570183	2.2461922	-3.5291648	2.2203758	-3.1871698	0.10180729	3.690699	-3.4716256	4.06353	-5.4768925	-0.2555583	-5.695151	-4.9238424	2.061585	2.022823	-0.750442	-1.6037607	1.0106194	6.1555624	2.5146313	3.5275517	-1.2916127	4.7742147	-0.8294655	-0.82397175	-4.143231	2.277782	1.5916582	-3.8807814	-3.0592332	-0.5104278	-4.896015	6.047865	7.743371
ERR2146938	2.1441002	4.365096	-3.1330347	2.4343162	-2.3312366	2.7032688	0.7104063	-1.1386162	-5.1488104	0.29427123	-1.5272454	0.67080766	0.8925901	1.0314442	-0.21791296	-1.5725845	-5.8622303	-1.5367278	5.4246197	4.76921	1.3496426	8.169928	0.047926765	-6.6042924	-4.8795114	-0.32005155	-7.989599	3.7477736	-11.737472	-5.812733	-6.5639553	5.209214	-7.1402535	-1.0759097	-8.437503	-15.039174	4.5128264	-2.531836	-8.4447365	3.046436	-11.132511	5.305263	-5.834018	2.3249753	-10.315762	-0.7380462	-3.9853814	0.12091293	-4.5576015	-3.272193
ERR2146939	-0.319766	-5.538333	-3.5590312	2.5634513	1.569792	-6.391259	4.8542414	-3.8889682	-3.3660097	7.6776986	-5.166711	-6.139497	2.7978308	0.108982645	3.211412	-7.370166	-0.8315909	2.977948	-4.8365273	-2.697605	0.85445964	-4.3249087	-1.9608977	-6.7006106	-1.9061459	4.848965	-2.7680056	6.692231	4.103616	-5.817097	-0.14350925	-14.095791	6.7566614	5.026215	4.6175313	-3.81518	3.8918388	0.47275352	-3.3194146	5.5340447	5.1380653	4.6624885	-5.771163	7.793649	-0.77323663	-0.1888614	-0.018142626	-1.9224294	-7.804164	1.8003414
ERR2146940	-4.5729885	2.2396657	-2.204683	1.7173806	-4.9303946	-1.4178976	3.9942138	2.555792	-3.6562338	-3.5618901	-1.2008325	1.4985296	-1.3965162	-1.1840074	-3.641765	-0.41890523	-3.633501	-1.602633	1.4540306	2.6792333	0.98896563	4.30571	0.2914481	0.6522467	-4.8287044	2.7130737	-8.422528	-5.0508747	-3.462638	-3.0485446	0.65065396	-4.0105305	-6.258826	10.737994	-3.8001084	10.770076	2.4466007	-2.667784	2.0329018	5.304114	-3.0151422	-9.928169	15.017737	4.25697	-6.817476	12.611286	7.072499	2.807866	-1.135904	-1.1058999
ERR2146941	-1.6113131	-2.4615924	-4.3611093	-0.10944943	0.6274662	-6.246513	3.2906597	-2.351225	-5.693078	0.92416924	-0.30614412	0.052465286	5.145242	1.524853	7.1484404	-3.2608013	-0.30907673	5.9128847	-1.7189608	-1.4430897	-0.49370694	-0.85232717	0.91892225	-1.2482005	3.5541375	1.5569388	1.1989565	0.090414785	-1.2681746	-2.506809	0.30113366	5.237716	0.40770653	2.2721863	-2.7654843	-5.864283	-4.8635817	-5.527553	-10.561325	0.43164924	-4.345602	-1.4628545	6.2511673	-4.0379353	1.3109518	4.716678	-0.10703205	6.4521403	5.4470205	-6.2895412
ERR2146942	-3.7844148	-6.91669	-1.0313413	2.9299617	-4.010687	3.3319209	-2.0259154	4.5498543	-2.824656	-0.44104034	1.9502776	6.52566	-1.5606812	2.8143256	-3.0867968	0.9006268	-1.7750415	3.6196084	2.2409065	3.0882535	3.6100914	-0.47613853	-3.083167	1.7028738	0.96296364	0.9185035	-3.0117273	1.726535	-5.6062074	-0.50737303	0.97326905	-0.9375615	3.3829722	-1.2944092	0.5055081	3.6954257	-3.3813765	0.02866618	0.7801259	-6.1956806	2.142558	6.52826	0.41494954	-2.0727084	2.7592416	2.534936	1.3416643	-3.9394522	-1.8372784	1.7302191
ERR2146943	-1.7429365	3.8941433	-0.28161377	3.8519917	-3.5948198	0.6992584	4.4547086	0.4240709	-3.2786975	2.290931	-1.0875907	-3.0789704	-1.2986718	-5.0815096	1.3337796	-0.43998367	-3.1277022	-5.8835764	-3.3965273	-5.6182566	-1.8862256	3.8223083	0.45429432	-4.915769	-2.6393046	1.2913846	-2.968441	-7.830956	3.360918	6.4913964	2.5783968	-0.7662675	-4.2699947	-5.226101	-2.697678	-2.5838919	-0.33292302	6.31397	4.467245	-1.9357764	11.928848	-12.027573	-10.542323	-6.295396	-0.21398921	0.5124815	-3.4309344	8.385651	-6.7216396	1.80644
ERR2146944	1.9373966	-1.2683386	12.656465	-1.5847147	4.3421216	4.3517327	-1.8760911	3.4415996	5.8594465	5.1648235	-2.8969	2.7635074	-6.29603	-1.7527518	0.099969424	1.1050334	2.6229851	-3.7214837	-12.961173	-2.1968105	5.550973	-6.57449	4.9287496	3.3052778	6.4935102	20.80649	1.1651212	1.675897	6.3955336	-10.203266	6.066869	2.5322957	-1.4090018	-13.659693	-5.164078	-6.343874	0.8768933	0.50899917	1.4047672	5.3983917	-13.645554	2.990386	8.123951	0.89660335	0.04997729	-0.3544826	7.184925	-2.7987967	-0.8230148	1.1889716
ERR2146945	-0.68310076	-2.7682345	-2.1099472	-3.3516357	7.8903327	-3.3133948	-4.688359	3.66131	0.9379227	4.3053603	0.2009885	2.4446807	-0.7921865	-3.596623	-0.76596165	1.4644822	-2.8493447	-0.6079077	-1.6224325	-1.4119778	1.1668776	1.3632268	1.3056871	2.4104688	1.4779776	5.4176235	3.5273468	-0.7440644	-3.0682085	3.1064057	-4.1558394	2.7575092	-1.6497737	-0.6733632	1.3888947	0.26603264	-3.1576648	-1.5890958	-1.534754	-3.9721932	3.344725	3.2898145	-4.047697	1.4495528	0.32892406	1.1396104	-0.5890542	4.696316	0.2910229	1.2948129
ERR2146946	-1.9478252	5.881881	-2.4150784	0.16792963	-3.8839166	1.5352926	-0.8768505	1.119333	-13.787967	-4.2242837	-4.181757	7.7610307	-3.2790215	0.9155132	5.6826487	4.329507	-0.63337964	-0.5716442	0.8002065	9.295036	9.075109	-2.276824	-1.3150164	-2.8536406	6.0090137	-11.830446	-6.127702	-3.1274285	18.589464	1.8915043	-10.813432	4.5125003	-3.6752396	-12.38238	14.78549	-1.1598926	-2.1277864	-2.5905051	-4.3321934	-1.3395582	5.9614587	0.82360154	9.766497	7.2188754	1.0203339	7.6500487	0.25673005	-1.2782815	-2.8858082	-0.27569732
ERR2146947	10.999801	14.699453	22.064577	-14.194735	8.254257	-9.79739	5.388463	-4.298823	-14.456351	31.74048	9.276215	6.144548	-8.271117	0.18874168	-11.666105	-0.3793981	8.347865	2.963188	8.515003	-3.9075432	2.6655242	-3.4578617	-0.09859199	3.3478718	-4.671541	-6.9735665	-2.4542005	1.3701185	-1.3986443	1.1842047	4.7218423	-1.0540164	-0.48674643	0.5608252	4.0249414	-0.5640161	-1.3735249	2.046143	0.16580279	-0.25717562	-2.2723343	-3.381726	0.21010731	2.5102372	-2.0608726	1.0743238	-1.4540843	-1.1746073	2.7635155	1.1363482
ERR2146948	1.4774574	-1.3330529	17.462843	-0.3849541	-0.54270554	6.6510835	-5.4004745	-2.1183276	6.5616198	-4.7214036	-4.794171	-4.9948044	3.9475217	-12.124713	-7.4304643	-8.881364	0.93456316	3.0110476	-4.6526046	5.184388	0.8173986	3.6825926	-5.937615	-1.5350138	-4.4009547	-0.8757359	-17.17069	8.603482	5.483441	8.757104	-7.0382442	1.7465849	8.039976	8.388035	4.4740257	-10.41657	-5.2913203	-4.0257163	7.940301	4.7551656	-1.4918022	3.2936542	4.578971	-5.712692	-4.7757397	-1.0106988	-3.2134786	3.4941795	6.9838157	-0.50066847
ERR2146949	0.45789984	4.663763	10.58707	-0.08158765	1.5679909	-1.6158459	2.8392868	-0.77313715	-0.93846357	-3.5371404	-2.4358456	3.0997536	-2.7296042	-5.945027	0.5076489	-0.8644542	-1.7945058	2.1531653	4.606613	-0.45216432	5.4031305	1.2680541	-2.928051	-5.8671613	-1.7330219	2.195897	-11.454685	-2.186573	3.1497629	-5.6470594	-12.046066	-2.4453073	-6.458911	-6.9419847	-13.563348	16.245796	10.145268	4.2353477	4.0440946	1.0528342	-1.0677471	-4.6901217	-4.1751747	-5.365503	0.18110035	-5.3537993	-4.7229342	1.7042636	-3.7497437	-11.805235
ERR2146950	0.7303032	8.292887	1.586774	-1.9832894	-6.509185	3.7672634	-1.1310258	0.19272837	-8.528263	0.335607	2.1567194	3.5656574	-1.5506227	3.607143	-3.649714	-1.338494	-1.3815969	-3.1840343	-1.0837164	-1.9302799	0.07240235	5.1967106	0.12532575	-0.24522568	2.4485335	-3.7914886	10.911355	1.3328028	1.2284821	4.3465314	2.7064173	-2.6621366	6.744775	0.19083036	-5.592456	-1.4037652	1.0410484	0.7417205	1.9695396	3.3665867	-2.124861	3.6362855	-0.683757	-4.1547904	3.9480078	2.6955018	15.454306	10.970616	0.43948993	-10.3639345
ERR2146951	-1.0007085	2.4411552	-5.4570074	5.2166605	-0.15642078	0.23970136	3.2813802	-2.5111759	-2.501189	1.0785146	-0.1802651	-4.1666183	3.9204664	0.774714	-0.88891274	-2.2190795	-3.8706393	-2.163633	0.7663306	0.9581413	0.6819331	-1.6773664	-0.850756	1.1988441	-8.660919	-2.691325	0.39654022	-9.638008	-1.6374156	1.6961448	3.0890589	5.5468535	8.153772	-7.256965	-2.952379	0.39159128	-5.931303	4.2270455	3.6135516	-2.2848368	-1.0355886	-0.1983469	-2.5744777	11.993613	0.59043074	-1.5961782	1.0275927	0.06589668	5.2242985	-1.6632533
ERR2146952	-1.5942657	-4.013014	6.7379427	0.30186334	-0.38956496	-1.0425104	1.7896303	-0.34262773	5.136235	0.8477432	0.12253928	2.1591952	-0.1331948	-1.3134428	-4.396183	-1.3449874	-2.9196851	1.8300602	1.7034674	-3.7980518	-0.31845105	1.3582649	-0.68740064	-4.4444957	3.310037	-1.4593892	0.3607096	-1.182911	3.5289237	-2.9981928	1.2243289	5.239223	1.031084	-0.29667053	4.5317025	-1.1625842	1.3409448	0.18288948	-3.5925612	-1.8694425	4.8511486	2.261628	3.445318	-10.21269	1.3848972	-5.0478487	1.4576409	1.88477	-8.372412	1.500822
ERR2146953	-2.1780186	-1.1999027	3.208505	-5.518517	-1.6779158	-2.9418004	4.821789	3.4439163	-2.0252943	-4.93708	0.79066414	1.9637113	-2.3014793	-0.19101965	-7.3458414	3.7502067	1.4843469	-2.3787124	-5.7524986	-1.4761246	-3.7995183	-2.4236841	3.0440776	-9.08223	0.9981	-3.6843998	-2.0151427	1.3095772	-4.555427	2.1528974	0.49100995	8.777555	9.707122	-6.2926173	-5.179037	-1.4980327	9.719509	2.5243123	1.2748053	-0.05896855	1.5100555	-4.82487	3.777449	-9.2713175	6.8103085	0.5795649	1.8671607	0.9476974	-3.7749825	13.932897
ERR2146954	-0.38663656	1.1513046	-0.86936766	2.308956	-2.1222427	0.84072053	0.554416	-0.64726293	-0.13781121	0.5982278	0.18104239	-0.7708132	-0.6720349	-0.46512136	-1.6459615	1.2933999	0.092359364	0.42081058	1.7696712	1.1536375	-1.1702883	2.7838635	0.6860429	0.9401478	-4.3443995	-0.037254173	0.94833165	-1.0640893	-4.5339527	-0.6840002	4.411618	2.0465658	-3.3321848	1.0182835	-3.0587544	4.0966253	-0.4531968	-2.9456887	-2.3876972	2.6592824	0.6634714	-1.175814	2.5788999	7.0194616	-2.473802	-1.2290165	-2.6459734	-0.2519047	1.7099732	-2.2672722
ERR2146955	-4.846897	15.228848	-10.77667	-4.2405233	-13.257174	6.4151454	-10.604192	-20.384674	19.035213	7.47357	-19.543892	19.810648	-5.476163	-4.381413	-0.07220151	3.2968953	-10.315147	6.671164	0.31384224	-17.48248	3.1423576	-5.87784	-0.37027746	-1.5133798	0.36981124	-3.8437116	3.273293	-2.8490317	0.11927066	1.3611012	-1.2626512	-1.3603493	1.711321	2.538504	2.6811984	-0.8375233	0.13850902	1.4717412	-1.4950995	1.2052076	-2.008161	-2.153865	0.40921566	-0.51390237	-3.926415	-1.5421441	-0.63140625	-1.4300728	3.665686	1.1696392
ERR2146956	-4.367891	7.9229403	-9.509218	-8.796696	10.244725	-2.295742	-13.723129	-1.5942967	3.880196	-4.734767	-3.4982495	3.1745784	4.148732	-4.5869207	-2.183284	-10.919901	18.529327	7.8662553	-10.405365	6.2779303	-9.515621	9.743035	-17.006493	13.546817	-9.634644	-5.4392204	-0.023095667	-4.0244703	5.522271	-10.24575	6.959237	2.1422598	-0.032899544	-0.16215026	-2.3638737	-3.4868073	6.797949	7.958362	-2.687211	-4.8707085	1.6765121	-1.6909513	1.7162464	0.20724747	2.6603642	1.4686283	1.4340023	-0.19261508	-2.9414124	-2.5885277
ERR2146957	-4.042993	-2.9795299	-4.001203	-5.147816	8.030507	0.7418948	-3.983965	3.8388274	-0.5462167	0.5354915	0.8217823	3.1294997	-0.5204016	0.24955086	-2.570604	2.2222662	1.6194158	0.040840633	-0.9553017	-0.32751647	-0.31104094	1.6143214	2.0847816	0.4538846	-1.5139539	3.096186	1.4805518	-4.1419554	0.02423539	3.0271645	-1.0980462	4.072013	-2.0970976	-0.5974295	0.21923912	-2.1503596	-1.0269736	-8.117013	-1.3331393	5.8111186	0.0011446335	2.4755576	-2.490462	-0.16199876	0.16126828	1.6655709	-1.3271654	5.633049	0.92882293	1.9999729
ERR2146958	-1.2089132	3.2506554	-0.88751155	2.7280715	-5.592867	6.5883555	-2.2738295	1.9060359	7.323361	5.054017	0.68825746	-7.8117723	-3.6415198	3.2579403	-0.78819585	-1.3187393	5.7036276	-8.50836	-5.648527	-0.008816878	-2.5057755	4.0325074	0.45997474	9.077174	-1.8413901	-0.89381695	7.126269	-1.0427719	-4.7638345	-4.9415507	0.9429111	-9.157177	-0.28531587	-6.229965	10.940633	2.0524504	0.03991515	-11.135159	3.715352	8.737292	-1.2469646	-12.730725	3.08983	-7.340752	-1.6636409	7.1768904	-14.683119	-6.570564	-7.6911488	-3.1649935
ERR2146959	6.875469	12.24344	14.870781	-9.889326	1.0029467	6.0453424	-7.7745266	3.20166	-2.261537	4.1319494	-4.001342	-7.8548474	-1.3351463	16.046543	19.768774	-7.899819	-14.54135	6.0376153	-10.360319	0.7134354	-16.679585	-3.2041028	0.8071648	1.5098335	-4.245789	-0.18665896	0.767593	3.9345183	-8.536328	3.8868163	-2.7916949	14.68797	0.74833494	-4.310211	0.74007887	7.2579517	0.6537987	0.2338665	-1.8662959	2.5794876	6.579773	2.0001757	0.4381881	-2.2801812	-2.871163	2.8636615	1.3051283	-3.0790164	1.23473	-1.8689016
ERR2146960	1.16204	0.61602235	0.67700344	1.703027	-3.8117485	3.9672782	-1.28165	-2.0945196	-3.36763	-2.9640377	-4.2679825	-2.4586825	-5.5054297	1.451463	-1.2857376	1.1735635	0.6877389	-0.34663638	0.6271276	5.4224	1.9388269	1.6171579	-1.5546882	-0.12019332	1.576874	-1.4107776	5.4091196	-2.1466076	1.3980287	-0.18439737	0.321787	0.16759726	-1.337519	-4.242	1.2667937	2.1648486	6.2608	2.0569074	-4.78096	2.1751773	0.21575537	1.5133064	-5.843852	-1.1332579	8.508774	-0.21335883	0.5407457	-8.473579	3.0140798	3.9540875
ERR2146961	-2.7074914	-2.3165257	-1.6110508	0.36667383	-5.152839	-0.96390796	2.1604276	0.88147664	-0.995934	-0.20970626	3.7339306	2.5587893	3.271698	2.135096	-3.0801272	-3.5774815	2.0085127	-1.0151871	0.10715225	-0.08221068	1.6055924	0.88851345	-2.3399475	1.1605452	-0.6206406	0.0927436	-3.2120519	-3.0089757	-0.7096738	-0.05236932	-2.8699028	0.80520046	0.09841977	0.32848358	1.4522958	-0.63103986	-5.0729356	-1.3773774	-1.3026326	1.7502348	-2.5045571	-5.9702606	2.4412355	-4.0861373	-6.84975	-0.17181702	6.2303658	-4.0664897	1.835904	5.7036233
ERR2146962	-0.2617478	8.395693	-2.7786868	3.235741	-0.7033712	-1.4757688	-3.3117855	-0.9507861	12.864109	9.958714	4.1128473	-6.710682	10.117958	21.05894	1.7604572	10.280524	13.438472	4.2148676	11.039946	-5.7793016	-9.19694	13.74943	-7.12814	-14.430981	11.935774	8.320174	-6.3108497	-10.195415	6.3336983	-2.4901574	-4.2445116	1.1733749	1.005528	0.1680021	-0.952599	-0.41139176	-7.4166493	-0.21664064	3.4007702	3.2439322	1.2885456	2.335158	2.4479918	1.8588985	2.9272952	0.6844792	2.375961	-1.3131087	-1.1892653	0.42093462
ERR2146963	-1.951531	3.4584558	-1.9698226	-0.22325037	-2.8183036	1.2947632	1.9767848	2.2945611	-1.5086722	-3.1809952	-0.6121872	0.60464853	-2.8106475	0.3878887	-1.8466479	1.2225114	1.8211923	-0.2991016	-1.3432395	2.144136	2.6553817	1.5674385	2.0785487	-2.949252	1.0617905	-1.2371166	0.82919437	-2.0306442	-3.7163131	-1.6686279	3.061244	-1.2342734	-1.4862233	6.4217916	-4.5838146	4.4783998	2.6943398	-8.47419	-6.3370085	4.958586	-3.5835938	0.13669088	5.2909317	-3.4589562	6.11449	1.8285058	-2.4763474	0.8414413	11.0948305	10.112145
ERR2146964	1.1568614	8.978172	-4.627727	-5.18741	0.507541	6.8412747	1.0357577	-3.8252287	-5.9455476	-10.767336	-0.15703717	-0.28312352	-3.881392	-1.2768483	3.732702	-5.09847	2.7701397	-0.36755785	17.140747	-3.5007088	2.0439746	8.630513	-9.892151	0.16472419	3.762803	13.9369135	2.5031652	14.673462	6.826631	18.239672	16.544344	3.29188	1.1402518	-2.2405334	1.2306306	4.130558	7.480165	-6.8419356	-0.42994338	-1.4416326	-0.69856364	-2.644567	-4.8294063	2.149108	-5.799765	1.5564777	0.50946325	-6.5300226	-0.600764	0.33157027
ERR2146965	1.9384348	9.243107	-3.8942156	-0.3481989	-6.2675476	-6.9900594	8.209741	6.7476068	1.0491297	-14.13551	-1.4702069	-14.193678	-9.364219	-7.6313705	-14.015992	11.270985	2.4130194	20.004522	4.789786	-10.002556	-19.51472	-13.430562	4.2933893	8.927771	1.7209438	0.3829805	-6.7290688	2.967711	1.1420919	0.5494617	0.041802566	-2.592825	-7.343659	-6.0055785	2.2585392	-2.4113245	-2.6906147	-1.8357766	-5.0502033	3.5651853	1.0897024	4.2723927	-0.88234115	1.375477	1.9825922	1.1820425	1.59025	2.5410218	0.007407182	-1.4763387
ERR2146966	-1.1813555	1.3565052	-0.7037187	1.3046097	-4.589497	3.9692166	-2.7580402	0.026578562	-3.785603	-0.8559375	1.542229	0.8122972	1.5243883	2.2190506	-0.2676034	0.49529228	2.6583498	1.2084671	0.23815462	4.230627	1.9614489	2.3503551	-1.0626594	-0.4745172	-0.25634286	-2.0449004	-0.74775314	-1.8556023	-2.882693	2.2818308	-3.6737711	0.92414474	-1.6683341	-0.83075595	3.6776495	0.85781306	1.1796769	-1.0599124	-2.5910232	4.1672516	-1.5856743	-1.2139362	-0.004748809	-0.82742345	-1.1764696	0.6271035	3.0467868	-2.924728	1.2822162	4.429096
ERR2146967	-2.412702	2.7745714	6.679528	-3.932271	-3.1710837	-0.9390926	-1.2676369	-0.99924	-0.33320305	-16.774609	5.486928	9.097394	-6.115631	0.49596834	15.8417225	-9.173773	23.38112	-14.02098	10.878273	-6.7255235	-2.0538385	-18.10509	-2.5430608	-7.171512	-5.3091984	0.71261346	1.5688591	-1.0725024	-10.66677	-3.237177	-4.229452	-4.260852	3.2308824	-0.827616	4.98476	-0.7058671	-6.4494653	2.5590177	0.57867694	4.5319386	0.38872287	2.5624063	0.3672523	-1.1762383	-1.2734722	-3.0991473	1.735945	4.3672886	-0.33935827	-1.4927691
ERR2146968	-2.2062001	16.607294	-2.936668	-6.208679	-6.0775876	-13.331279	17.629164	31.4395	22.988081	6.111163	-8.4946	1.5744087	6.743974	-1.0359952	3.833733	-10.249124	-4.114565	-0.8145351	7.2878904	10.6368	8.561478	-3.978475	-2.843909	4.485842	2.4789295	-0.6716204	4.4570575	0.17341304	0.23847285	5.7599134	-1.284906	-1.1939466	2.1377635	0.33260828	0.7619307	-1.2080569	0.6352535	2.8743389	-2.2958975	-2.133736	-2.3008854	1.6091527	-0.15851532	-0.26196268	-0.3990233	-1.1726619	-0.97378874	-0.31854045	-1.8409137	0.17186318
ERR2146969	-1.2051361	3.7449946	-11.001957	-16.734856	18.06775	-5.3920965	-19.606155	3.8183193	2.371041	-2.3536963	-2.784433	-4.851195	-2.1652207	-3.690466	-7.456039	6.742487	-16.54735	-17.208702	13.068192	5.914913	-2.6590514	0.15310949	0.36702892	-8.435589	-2.2758198	-4.3457656	-4.291673	6.195858	-2.6694458	-7.746744	7.065145	-5.7603726	-1.4102575	-4.358719	-0.3160323	-1.8053972	-7.933595	5.18572	-3.1006293	3.581328	3.12751	1.1155318	4.7471333	-4.0225334	4.0927625	-0.7118986	4.316694	-5.560776	-1.6103619	-1.0504137
ERR2146970	2.961979	2.406536	17.335304	-5.495356	2.9377995	5.3472724	-6.8897862	0.094350256	5.7153697	-4.906908	-1.9743701	-5.076416	5.5317416	5.8374705	4.509853	-3.892234	-4.931813	0.5903738	1.6654712	0.10921991	2.2980795	-1.1687131	1.1052661	4.8947115	-0.70432293	-2.6387892	-2.6015904	-1.4803932	5.417996	-6.837158	4.013048	-7.808638	-10.328001	5.608624	3.1979132	12.037092	-5.905751	-7.460924	2.180839	-7.700944	-6.8541627	2.6013799	-5.861991	1.1413324	1.2161167	-2.8231285	4.077465	12.124129	-0.3657124	11.831358
ERR2146971	-5.590724	-13.289118	4.5073953	3.193182	0.0059128283	8.571728	-13.767663	10.48234	2.768252	0.6184826	3.4870245	12.745654	3.2694325	8.508234	5.9227853	2.2208369	2.2522423	15.855552	12.460632	4.9039917	-2.1979427	-1.8962381	21.775518	2.39175	-15.623414	0.21347854	-1.9530896	3.112511	7.5628953	6.559979	2.3165522	-8.202444	3.872671	-0.62053066	-6.3679967	-5.526663	1.3032587	2.8240492	0.8846136	-0.34967902	0.60292983	-7.294633	3.5468843	2.3219643	3.9371877	-1.1415116	-1.3412417	-2.7170148	-3.3452907	-0.15093084
ERR2146972	-3.5745547	-5.976232	-1.0295794	1.6681377	-8.437846	5.2287474	-0.3147335	8.774598	2.607611	3.779441	3.663291	3.3683627	-0.2898362	2.427871	-6.1343775	1.2226064	1.5310136	0.23039125	-4.3650618	3.4106886	4.4874597	-1.0564921	1.1651671	-1.4475636	-0.4212508	4.43296	-0.42018697	4.438486	2.5563278	-10.230029	6.8983154	3.1352825	1.2123997	-1.4326416	1.534764	1.7730631	4.092965	6.2617846	-1.0553925	17.55919	16.110151	0.8831876	-5.496382	8.233271	-5.6069427	-0.8404135	-2.821647	4.0235295	13.022075	-2.8792756
ERR2146973	-0.64168924	0.9782856	0.73208195	2.9558535	-3.4773943	3.2007399	-0.8297317	-1.4001851	-0.5708065	0.94757015	-2.279924	-5.5835786	0.997722	6.6901326	5.064675	0.68033683	0.16868082	2.178537	0.9271667	6.464281	1.7616321	0.7475493	-3.1282167	0.3228691	-2.8794048	-9.05162	1.6297004	5.153385	-0.27831414	-1.2663789	0.52055466	-4.272954	-10.579509	0.61135256	4.1090198	-10.514683	2.2545662	0.6316029	-2.3909385	1.4433047	-6.978933	-5.9959335	-6.629702	4.243441	5.1260138	-8.649544	1.8532463	2.624731	1.5460324	1.6976831
ERR2146974	-1.3077314	7.2815294	9.6034775	-5.085296	-1.7633216	-14.032941	-1.4774121	-7.6637497	-4.353068	-17.971413	-5.5182123	-1.953345	24.221788	20.006754	-18.310154	2.2410839	-0.53416455	-5.007607	-4.538542	-9.475301	13.724194	-0.2503882	6.3431625	7.2723627	-6.3733764	1.9358225	4.6568837	0.684881	-2.080684	3.9190483	-1.8046988	0.5524619	-1.9495252	-2.878083	1.7524296	-2.8608558	0.9267118	3.2810562	0.28210548	0.36139524	1.859908	-0.107907616	-0.56219393	-0.9845016	-2.0431013	-0.49020204	-3.0751076	-2.6650312	-0.0029075632	-1.2021731
ERR2146975	-2.0011601	1.8794993	5.055917	-1.0685221	1.0542067	1.4667784	0.1390679	-1.0366476	-0.27094683	-3.208227	-0.72928077	4.570607	0.4554547	-1.206895	3.6010597	-2.627854	1.4828613	-0.7031622	-1.1634916	0.7293156	3.1254914	-4.4740787	0.4988896	-5.179373	2.2584147	-3.5390704	-0.690927	1.3631113	1.566244	-2.7326624	4.235806	2.942495	-1.5045646	1.2603794	-3.56274	1.623937	-0.48992383	-0.91118574	-6.5506253	4.622272	4.2605295	4.5132375	-3.514885	3.5580075	1.3554511	-1.2106274	-8.188511	-0.36932474	-5.2165475	2.1877108
ERR2146976	1.4249079	11.896128	-4.6586447	-2.8453667	1.0443925	-1.0970515	-6.4114695	6.8843727	-0.29641435	-3.7887225	15.895192	-11.510971	-4.877394	-2.7421925	15.978049	26.302534	-1.6438817	7.617764	-8.022385	-5.8200517	20.640387	-2.5638208	-9.473307	1.3464017	-8.384889	-0.415831	0.78576684	3.231467	1.8879043	-2.278272	1.9769825	-0.49508828	6.6646504	7.11603	-2.9881978	-1.747952	-1.6429727	2.3085065	1.5655476	-1.9711251	1.2250769	-0.034945272	1.5449787	-5.215015	-5.6439667	0.5369962	-3.325302	1.7664809	-0.112435974	1.973466
